digraph Tree {
node [shape=box, style="filled", color="black"] ;
0 [label="hour <= 5.75\nentropy = 1.5542\nsamples = 411\nvalue = [164, 148, 99]\nclass = HIGH", fillcolor="#e5813910"] ;
1 [label="hour <= 0.875\nentropy = 0.4138\nsamples = 12\nvalue = [1, 11, 0]\nclass = LOW", fillcolor="#39e581e8"] ;
0 -> 1 [labeldistance=2.5, labelangle=45, headlabel="True"] ;
2 [label="entropy = 0.9183\nsamples = 3\nvalue = [1, 2, 0]\nclass = LOW", fillcolor="#39e5817f"] ;
1 -> 2 ;
3 [label="entropy = 0.0\nsamples = 9\nvalue = [0, 9, 0]\nclass = LOW", fillcolor="#39e581ff"] ;
1 -> 3 ;
4 [label="hour <= 19.875\nentropy = 1.5561\nsamples = 399\nvalue = [163, 137, 99]\nclass = HIGH", fillcolor="#e5813919"] ;
0 -> 4 [labeldistance=2.5, labelangle=-45, headlabel="False"] ;
5 [label="hour <= 13.875\nentropy = 1.559\nsamples = 371\nvalue = [155, 118, 98]\nclass = HIGH", fillcolor="#e5813925"] ;
4 -> 5 ;
6 [label="to_urban <= 0.5\nentropy = 1.5761\nsamples = 158\nvalue = [48, 61, 49]\nclass = LOW", fillcolor="#39e5811c"] ;
5 -> 6 ;
7 [label="hour <= 7.375\nentropy = 1.5248\nsamples = 66\nvalue = [19, 31, 16]\nclass = LOW", fillcolor="#39e58141"] ;
6 -> 7 ;
8 [label="hour <= 7.125\nentropy = 1.1488\nsamples = 7\nvalue = [1, 1, 5]\nclass = MEDIUM", fillcolor="#8139e5aa"] ;
7 -> 8 ;
9 [label="entropy = 0.8113\nsamples = 4\nvalue = [0, 1, 3]\nclass = MEDIUM", fillcolor="#8139e5aa"] ;
8 -> 9 ;
10 [label="entropy = 0.9183\nsamples = 3\nvalue = [1, 0, 2]\nclass = MEDIUM", fillcolor="#8139e57f"] ;
8 -> 10 ;
11 [label="hour <= 13.125\nentropy = 1.4705\nsamples = 59\nvalue = [18, 30, 11]\nclass = LOW", fillcolor="#39e5814b"] ;
7 -> 11 ;
12 [label="entropy = 1.4073\nsamples = 51\nvalue = [17, 27, 7]\nclass = LOW", fillcolor="#39e5814b"] ;
11 -> 12 ;
13 [label="entropy = 1.4056\nsamples = 8\nvalue = [1, 3, 4]\nclass = MEDIUM", fillcolor="#8139e533"] ;
11 -> 13 ;
14 [label="hour <= 6.875\nentropy = 1.5828\nsamples = 92\nvalue = [29, 30, 33]\nclass = MEDIUM", fillcolor="#8139e50c"] ;
6 -> 14 ;
15 [label="hour <= 6.625\nentropy = 1.0\nsamples = 6\nvalue = [3, 3, 0]\nclass = HIGH", fillcolor="#e5813900"] ;
14 -> 15 ;
16 [label="entropy = 0.9183\nsamples = 3\nvalue = [2, 1, 0]\nclass = HIGH", fillcolor="#e581397f"] ;
15 -> 16 ;
17 [label="entropy = 0.9183\nsamples = 3\nvalue = [1, 2, 0]\nclass = LOW", fillcolor="#39e5817f"] ;
15 -> 17 ;
18 [label="hour <= 7.375\nentropy = 1.5767\nsamples = 86\nvalue = [26, 27, 33]\nclass = MEDIUM", fillcolor="#8139e51a"] ;
14 -> 18 ;
19 [label="entropy = 0.9183\nsamples = 6\nvalue = [0, 4, 2]\nclass = LOW", fillcolor="#39e5817f"] ;
18 -> 19 ;
20 [label="entropy = 1.574\nsamples = 80\nvalue = [26, 23, 31]\nclass = MEDIUM", fillcolor="#8139e518"] ;
18 -> 20 ;
21 [label="hour <= 14.75\nentropy = 1.4956\nsamples = 213\nvalue = [107, 57, 49]\nclass = HIGH", fillcolor="#e5813952"] ;
5 -> 21 ;
22 [label="from_urban <= 0.5\nentropy = 0.9799\nsamples = 12\nvalue = [7, 5, 0]\nclass = HIGH", fillcolor="#e5813949"] ;
21 -> 22 ;
23 [label="entropy = 0.9544\nsamples = 8\nvalue = [5, 3, 0]\nclass = HIGH", fillcolor="#e5813966"] ;
22 -> 23 ;
24 [label="entropy = 1.0\nsamples = 4\nvalue = [2, 2, 0]\nclass = HIGH", fillcolor="#e5813900"] ;
22 -> 24 ;
25 [label="from_urban <= 0.5\nentropy = 1.5021\nsamples = 201\nvalue = [100, 52, 49]\nclass = HIGH", fillcolor="#e5813952"] ;
21 -> 25 ;
26 [label="hour <= 15.375\nentropy = 1.5637\nsamples = 59\nvalue = [22, 22, 15]\nclass = HIGH", fillcolor="#e5813900"] ;
25 -> 26 ;
27 [label="entropy = 0.9852\nsamples = 7\nvalue = [4, 3, 0]\nclass = HIGH", fillcolor="#e5813940"] ;
26 -> 27 ;
28 [label="entropy = 1.5779\nsamples = 52\nvalue = [18, 19, 15]\nclass = LOW", fillcolor="#39e58107"] ;
26 -> 28 ;
29 [label="hour <= 17.375\nentropy = 1.4424\nsamples = 142\nvalue = [78, 30, 34]\nclass = HIGH", fillcolor="#e5813968"] ;
25 -> 29 ;
30 [label="entropy = 1.5273\nsamples = 84\nvalue = [39, 25, 20]\nclass = HIGH", fillcolor="#e581393d"] ;
29 -> 30 ;
31 [label="entropy = 1.1848\nsamples = 58\nvalue = [39, 5, 14]\nclass = HIGH", fillcolor="#e5813991"] ;
29 -> 31 ;
32 [label="from_urban <= 0.5\nentropy = 1.0677\nsamples = 28\nvalue = [8, 19, 1]\nclass = LOW", fillcolor="#39e5818c"] ;
4 -> 32 ;
33 [label="hour <= 21.5\nentropy = 1.0\nsamples = 14\nvalue = [7, 7, 0]\nclass = HIGH", fillcolor="#e5813900"] ;
32 -> 33 ;
34 [label="entropy = 0.9183\nsamples = 6\nvalue = [4, 2, 0]\nclass = HIGH", fillcolor="#e581397f"] ;
33 -> 34 ;
35 [label="to_urban <= 0.5\nentropy = 0.9544\nsamples = 8\nvalue = [3, 5, 0]\nclass = LOW", fillcolor="#39e58166"] ;
33 -> 35 ;
36 [label="entropy = 1.0\nsamples = 4\nvalue = [2, 2, 0]\nclass = HIGH", fillcolor="#e5813900"] ;
35 -> 36 ;
37 [label="entropy = 0.8113\nsamples = 4\nvalue = [1, 3, 0]\nclass = LOW", fillcolor="#39e581aa"] ;
35 -> 37 ;
38 [label="hour <= 22.875\nentropy = 0.7345\nsamples = 14\nvalue = [1, 12, 1]\nclass = LOW", fillcolor="#39e581d8"] ;
32 -> 38 ;
39 [label="hour <= 21.375\nentropy = 0.5033\nsamples = 9\nvalue = [0, 8, 1]\nclass = LOW", fillcolor="#39e581df"] ;
38 -> 39 ;
40 [label="entropy = 0.0\nsamples = 6\nvalue = [0, 6, 0]\nclass = LOW", fillcolor="#39e581ff"] ;
39 -> 40 ;
41 [label="entropy = 0.9183\nsamples = 3\nvalue = [0, 2, 1]\nclass = LOW", fillcolor="#39e5817f"] ;
39 -> 41 ;
42 [label="entropy = 0.7219\nsamples = 5\nvalue = [1, 4, 0]\nclass = LOW", fillcolor="#39e581bf"] ;
38 -> 42 ;
}