digraph Tree {
node [shape=box, style="filled", color="black"] ;
0 [label="day_period <= 5.5\nentropy = 1.5542\nsamples = 411\nvalue = [164, 148, 99]\nclass = HIGH", fillcolor="#e5813910"] ;
1 [label="day_period <= 3.5\nentropy = 1.5581\nsamples = 390\nvalue = [160, 131, 99]\nclass = HIGH", fillcolor="#e581391d"] ;
0 -> 1 [labeldistance=2.5, labelangle=45, headlabel="True"] ;
2 [label="to_urban <= 0.5\nentropy = 1.5714\nsamples = 172\nvalue = [55, 68, 49]\nclass = LOW", fillcolor="#39e5811c"] ;
1 -> 2 ;
3 [label="from_urban <= 0.5\nentropy = 1.5108\nsamples = 77\nvalue = [25, 36, 16]\nclass = LOW", fillcolor="#39e58136"] ;
2 -> 3 ;
4 [label="day_period <= 1.5\nentropy = 1.5423\nsamples = 53\nvalue = [19, 22, 12]\nclass = LOW", fillcolor="#39e58117"] ;
3 -> 4 ;
5 [label="entropy = 1.558\nsamples = 33\nvalue = [10, 14, 9]\nclass = LOW", fillcolor="#39e5812c"] ;
4 -> 5 ;
6 [label="day_period <= 2.5\nentropy = 1.4577\nsamples = 20\nvalue = [9, 8, 3]\nclass = HIGH", fillcolor="#e5813915"] ;
4 -> 6 ;
7 [label="entropy = 0.8113\nsamples = 4\nvalue = [3, 0, 1]\nclass = HIGH", fillcolor="#e58139aa"] ;
6 -> 7 ;
8 [label="entropy = 1.4056\nsamples = 16\nvalue = [6, 8, 2]\nclass = LOW", fillcolor="#39e58133"] ;
6 -> 8 ;
9 [label="day_period <= 2.5\nentropy = 1.3844\nsamples = 24\nvalue = [6, 14, 4]\nclass = LOW", fillcolor="#39e58171"] ;
3 -> 9 ;
10 [label="entropy = 0.9864\nsamples = 9\nvalue = [1, 7, 1]\nclass = LOW", fillcolor="#39e581bf"] ;
9 -> 10 ;
11 [label="entropy = 1.5058\nsamples = 15\nvalue = [5, 7, 3]\nclass = LOW", fillcolor="#39e58133"] ;
9 -> 11 ;
12 [label="day_period <= 2.5\nentropy = 1.5838\nsamples = 95\nvalue = [30, 32, 33]\nclass = MEDIUM", fillcolor="#8139e504"] ;
2 -> 12 ;
13 [label="day_period <= 1.5\nentropy = 1.5779\nsamples = 79\nvalue = [24, 25, 30]\nclass = MEDIUM", fillcolor="#8139e518"] ;
12 -> 13 ;
14 [label="from_urban <= 0.5\nentropy = 1.5813\nsamples = 71\nvalue = [23, 22, 26]\nclass = MEDIUM", fillcolor="#8139e510"] ;
13 -> 14 ;
15 [label="entropy = 1.5679\nsamples = 40\nvalue = [13, 11, 16]\nclass = MEDIUM", fillcolor="#8139e51c"] ;
14 -> 15 ;
16 [label="entropy = 1.5835\nsamples = 31\nvalue = [10, 11, 10]\nclass = LOW", fillcolor="#39e5810c"] ;
14 -> 16 ;
17 [label="entropy = 1.4056\nsamples = 8\nvalue = [1, 3, 4]\nclass = MEDIUM", fillcolor="#8139e533"] ;
13 -> 17 ;
18 [label="from_urban <= 0.5\nentropy = 1.5052\nsamples = 16\nvalue = [6, 7, 3]\nclass = LOW", fillcolor="#39e5811a"] ;
12 -> 18 ;
19 [label="entropy = 1.5219\nsamples = 5\nvalue = [2, 2, 1]\nclass = HIGH", fillcolor="#e5813900"] ;
18 -> 19 ;
20 [label="entropy = 1.4949\nsamples = 11\nvalue = [4, 5, 2]\nclass = LOW", fillcolor="#39e58124"] ;
18 -> 20 ;
21 [label="day_period <= 4.5\nentropy = 1.5124\nsamples = 218\nvalue = [105, 63, 50]\nclass = HIGH", fillcolor="#e5813945"] ;
1 -> 21 ;
22 [label="from_urban <= 0.5\nentropy = 1.4939\nsamples = 186\nvalue = [94, 48, 44]\nclass = HIGH", fillcolor="#e5813955"] ;
21 -> 22 ;
23 [label="to_urban <= 0.5\nentropy = 1.565\nsamples = 54\nvalue = [21, 19, 14]\nclass = HIGH", fillcolor="#e581390f"] ;
22 -> 23 ;
24 [label="entropy = 1.5534\nsamples = 37\nvalue = [16, 10, 11]\nclass = HIGH", fillcolor="#e5813931"] ;
23 -> 24 ;
25 [label="entropy = 1.4466\nsamples = 17\nvalue = [5, 9, 3]\nclass = LOW", fillcolor="#39e58155"] ;
23 -> 25 ;
26 [label="to_urban <= 0.5\nentropy = 1.4387\nsamples = 132\nvalue = [73, 29, 30]\nclass = HIGH", fillcolor="#e581396b"] ;
22 -> 26 ;
27 [label="entropy = 1.3847\nsamples = 66\nvalue = [39, 14, 13]\nclass = HIGH", fillcolor="#e581397b"] ;
26 -> 27 ;
28 [label="entropy = 1.4828\nsamples = 66\nvalue = [34, 15, 17]\nclass = HIGH", fillcolor="#e5813958"] ;
26 -> 28 ;
29 [label="from_urban <= 0.5\nentropy = 1.4948\nsamples = 32\nvalue = [11, 15, 6]\nclass = LOW", fillcolor="#39e58131"] ;
21 -> 29 ;
30 [label="entropy = 1.2958\nsamples = 14\nvalue = [6, 7, 1]\nclass = LOW", fillcolor="#39e58120"] ;
29 -> 30 ;
31 [label="to_urban <= 0.5\nentropy = 1.5466\nsamples = 18\nvalue = [5, 8, 5]\nclass = LOW", fillcolor="#39e5813b"] ;
29 -> 31 ;
32 [label="entropy = 1.5567\nsamples = 7\nvalue = [2, 2, 3]\nclass = MEDIUM", fillcolor="#8139e533"] ;
31 -> 32 ;
33 [label="entropy = 1.4354\nsamples = 11\nvalue = [3, 6, 2]\nclass = LOW", fillcolor="#39e58160"] ;
31 -> 33 ;
34 [label="from_urban <= 0.5\nentropy = 0.7025\nsamples = 21\nvalue = [4, 17, 0]\nclass = LOW", fillcolor="#39e581c3"] ;
0 -> 34 [labeldistance=2.5, labelangle=-45, headlabel="False"] ;
35 [label="entropy = 0.9544\nsamples = 8\nvalue = [3, 5, 0]\nclass = LOW", fillcolor="#39e58166"] ;
34 -> 35 ;
36 [label="to_urban <= 0.5\nentropy = 0.3912\nsamples = 13\nvalue = [1, 12, 0]\nclass = LOW", fillcolor="#39e581ea"] ;
34 -> 36 ;
37 [label="entropy = 0.0\nsamples = 9\nvalue = [0, 9, 0]\nclass = LOW", fillcolor="#39e581ff"] ;
36 -> 37 ;
38 [label="entropy = 0.8113\nsamples = 4\nvalue = [1, 3, 0]\nclass = LOW", fillcolor="#39e581aa"] ;
36 -> 38 ;
}