digraph Tree {
node [shape=box, style="filled", color="black"] ;
0 [label="day_period <= 3.5\nentropy = 1.5542\nsamples = 411\nvalue = [164, 148, 99]\nclass = HIGH", fillcolor="#e5813910"] ;
1 [label="day_period <= 2.5\nentropy = 1.5585\nsamples = 359\nvalue = [149, 117, 93]\nclass = HIGH", fillcolor="#e5813922"] ;
0 -> 1 [labeldistance=2.5, labelangle=45, headlabel="True"] ;
2 [label="day_period <= 0.5\nentropy = 1.57\nsamples = 173\nvalue = [55, 69, 49]\nclass = LOW", fillcolor="#39e5811e"] ;
1 -> 2 ;
3 [label="entropy = 0.0\nsamples = 3\nvalue = [0, 3, 0]\nclass = LOW", fillcolor="#39e581ff"] ;
2 -> 3 ;
4 [label="to_urban <= 0.5\nentropy = 1.5739\nsamples = 170\nvalue = [55, 66, 49]\nclass = LOW", fillcolor="#39e58118"] ;
2 -> 4 ;
5 [label="from_urban <= 0.5\nentropy = 1.5161\nsamples = 76\nvalue = [25, 35, 16]\nclass = LOW", fillcolor="#39e58132"] ;
4 -> 5 ;
6 [label="day_period <= 1.5\nentropy = 1.5423\nsamples = 53\nvalue = [19, 22, 12]\nclass = LOW", fillcolor="#39e58117"] ;
5 -> 6 ;
7 [label="entropy = 1.558\nsamples = 33\nvalue = [10, 14, 9]\nclass = LOW", fillcolor="#39e5812c"] ;
6 -> 7 ;
8 [label="entropy = 1.4577\nsamples = 20\nvalue = [9, 8, 3]\nclass = HIGH", fillcolor="#e5813915"] ;
6 -> 8 ;
9 [label="day_period <= 1.5\nentropy = 1.4098\nsamples = 23\nvalue = [6, 13, 4]\nclass = LOW", fillcolor="#39e58169"] ;
5 -> 9 ;
10 [label="entropy = 1.371\nsamples = 5\nvalue = [1, 3, 1]\nclass = LOW", fillcolor="#39e5817f"] ;
9 -> 10 ;
11 [label="entropy = 1.4153\nsamples = 18\nvalue = [5, 10, 3]\nclass = LOW", fillcolor="#39e58162"] ;
9 -> 11 ;
12 [label="from_urban <= 0.5\nentropy = 1.5838\nsamples = 94\nvalue = [30, 31, 33]\nclass = MEDIUM", fillcolor="#8139e508"] ;
4 -> 12 ;
13 [label="day_period <= 1.5\nentropy = 1.5653\nsamples = 46\nvalue = [16, 12, 18]\nclass = MEDIUM", fillcolor="#8139e511"] ;
12 -> 13 ;
14 [label="entropy = 1.5591\nsamples = 39\nvalue = [13, 10, 16]\nclass = MEDIUM", fillcolor="#8139e51d"] ;
13 -> 14 ;
15 [label="entropy = 1.5567\nsamples = 7\nvalue = [3, 2, 2]\nclass = HIGH", fillcolor="#e5813933"] ;
13 -> 15 ;
16 [label="day_period <= 1.5\nentropy = 1.5721\nsamples = 48\nvalue = [14, 19, 15]\nclass = LOW", fillcolor="#39e5811f"] ;
12 -> 16 ;
17 [label="entropy = 1.5835\nsamples = 31\nvalue = [10, 11, 10]\nclass = LOW", fillcolor="#39e5810c"] ;
16 -> 17 ;
18 [label="entropy = 1.5222\nsamples = 17\nvalue = [4, 8, 5]\nclass = LOW", fillcolor="#39e58140"] ;
16 -> 18 ;
19 [label="from_urban <= 0.5\nentropy = 1.4939\nsamples = 186\nvalue = [94, 48, 44]\nclass = HIGH", fillcolor="#e5813955"] ;
1 -> 19 ;
20 [label="to_urban <= 0.5\nentropy = 1.565\nsamples = 54\nvalue = [21, 19, 14]\nclass = HIGH", fillcolor="#e581390f"] ;
19 -> 20 ;
21 [label="entropy = 1.5534\nsamples = 37\nvalue = [16, 10, 11]\nclass = HIGH", fillcolor="#e5813931"] ;
20 -> 21 ;
22 [label="entropy = 1.4466\nsamples = 17\nvalue = [5, 9, 3]\nclass = LOW", fillcolor="#39e58155"] ;
20 -> 22 ;
23 [label="to_urban <= 0.5\nentropy = 1.4387\nsamples = 132\nvalue = [73, 29, 30]\nclass = HIGH", fillcolor="#e581396b"] ;
19 -> 23 ;
24 [label="entropy = 1.3847\nsamples = 66\nvalue = [39, 14, 13]\nclass = HIGH", fillcolor="#e581397b"] ;
23 -> 24 ;
25 [label="entropy = 1.4828\nsamples = 66\nvalue = [34, 15, 17]\nclass = HIGH", fillcolor="#e5813958"] ;
23 -> 25 ;
26 [label="from_urban <= 0.5\nentropy = 1.3217\nsamples = 52\nvalue = [15, 31, 6]\nclass = LOW", fillcolor="#39e5816e"] ;
0 -> 26 [labeldistance=2.5, labelangle=-45, headlabel="False"] ;
27 [label="to_urban <= 0.5\nentropy = 1.2072\nsamples = 22\nvalue = [9, 12, 1]\nclass = LOW", fillcolor="#39e5813b"] ;
26 -> 27 ;
28 [label="entropy = 0.9183\nsamples = 6\nvalue = [2, 4, 0]\nclass = LOW", fillcolor="#39e5817f"] ;
27 -> 28 ;
29 [label="entropy = 1.2718\nsamples = 16\nvalue = [7, 8, 1]\nclass = LOW", fillcolor="#39e5811c"] ;
27 -> 29 ;
30 [label="to_urban <= 0.5\nentropy = 1.3126\nsamples = 30\nvalue = [6, 19, 5]\nclass = LOW", fillcolor="#39e5818a"] ;
26 -> 30 ;
31 [label="entropy = 1.2419\nsamples = 15\nvalue = [2, 10, 3]\nclass = LOW", fillcolor="#39e58195"] ;
30 -> 31 ;
32 [label="entropy = 1.3383\nsamples = 15\nvalue = [4, 9, 2]\nclass = LOW", fillcolor="#39e58174"] ;
30 -> 32 ;
}