digraph Tree {
node [shape=box, style="filled", color="black"] ;
0 [label="day_period <= 1.5\nentropy = 1.5583\nsamples = 306\nvalue = [85, 130, 91]\nclass = LOW", fillcolor="#39e5812e"] ;
1 [label="to_urban <= 0.5\nentropy = 1.5819\nsamples = 107\nvalue = [34, 34, 39]\nclass = MEDIUM", fillcolor="#8139e511"] ;
0 -> 1 [labeldistance=2.5, labelangle=45, headlabel="True"] ;
2 [label="from_urban <= 0.5\nentropy = 1.4509\nsamples = 23\nvalue = [4, 12, 7]\nclass = LOW", fillcolor="#39e58150"] ;
1 -> 2 ;
3 [label="entropy = 1.5129\nsamples = 20\nvalue = [4, 9, 7]\nclass = LOW", fillcolor="#39e58127"] ;
2 -> 3 ;
4 [label="entropy = 0.0\nsamples = 3\nvalue = [0, 3, 0]\nclass = LOW", fillcolor="#39e581ff"] ;
2 -> 4 ;
5 [label="from_urban <= 0.5\nentropy = 1.5671\nsamples = 84\nvalue = [30, 22, 32]\nclass = MEDIUM", fillcolor="#8139e509"] ;
1 -> 5 ;
6 [label="entropy = 1.5622\nsamples = 36\nvalue = [15, 11, 10]\nclass = HIGH", fillcolor="#e5813929"] ;
5 -> 6 ;
7 [label="entropy = 1.5274\nsamples = 48\nvalue = [15, 11, 22]\nclass = MEDIUM", fillcolor="#8139e536"] ;
5 -> 7 ;
8 [label="from_urban <= 0.5\nentropy = 1.5167\nsamples = 199\nvalue = [51, 96, 52]\nclass = LOW", fillcolor="#39e5814c"] ;
0 -> 8 [labeldistance=2.5, labelangle=-45, headlabel="False"] ;
9 [label="day_period <= 2.5\nentropy = 1.2742\nsamples = 63\nvalue = [13, 41, 9]\nclass = LOW", fillcolor="#39e5818f"] ;
8 -> 9 ;
10 [label="to_urban <= 0.5\nentropy = 0.469\nsamples = 10\nvalue = [0, 9, 1]\nclass = LOW", fillcolor="#39e581e3"] ;
9 -> 10 ;
11 [label="entropy = 0.0\nsamples = 4\nvalue = [0, 4, 0]\nclass = LOW", fillcolor="#39e581ff"] ;
10 -> 11 ;
12 [label="entropy = 0.65\nsamples = 6\nvalue = [0, 5, 1]\nclass = LOW", fillcolor="#39e581cc"] ;
10 -> 12 ;
13 [label="to_urban <= 0.5\nentropy = 1.3486\nsamples = 53\nvalue = [13, 32, 8]\nclass = LOW", fillcolor="#39e58179"] ;
9 -> 13 ;
14 [label="day_period <= 3.5\nentropy = 1.4043\nsamples = 35\nvalue = [11, 19, 5]\nclass = LOW", fillcolor="#39e58155"] ;
13 -> 14 ;
15 [label="entropy = 1.3915\nsamples = 29\nvalue = [9, 16, 4]\nclass = LOW", fillcolor="#39e58159"] ;
14 -> 15 ;
16 [label="entropy = 1.4591\nsamples = 6\nvalue = [2, 3, 1]\nclass = LOW", fillcolor="#39e58140"] ;
14 -> 16 ;
17 [label="day_period <= 3.5\nentropy = 1.1221\nsamples = 18\nvalue = [2, 13, 3]\nclass = LOW", fillcolor="#39e581aa"] ;
13 -> 17 ;
18 [label="entropy = 1.4354\nsamples = 11\nvalue = [2, 6, 3]\nclass = LOW", fillcolor="#39e58160"] ;
17 -> 18 ;
19 [label="entropy = 0.0\nsamples = 7\nvalue = [0, 7, 0]\nclass = LOW", fillcolor="#39e581ff"] ;
17 -> 19 ;
20 [label="day_period <= 2.5\nentropy = 1.5674\nsamples = 136\nvalue = [38, 55, 43]\nclass = LOW", fillcolor="#39e58121"] ;
8 -> 20 ;
21 [label="to_urban <= 0.5\nentropy = 1.4284\nsamples = 24\nvalue = [4, 13, 7]\nclass = LOW", fillcolor="#39e5815a"] ;
20 -> 21 ;
22 [label="entropy = 0.8813\nsamples = 10\nvalue = [0, 7, 3]\nclass = LOW", fillcolor="#39e58192"] ;
21 -> 22 ;
23 [label="entropy = 1.5567\nsamples = 14\nvalue = [4, 6, 4]\nclass = LOW", fillcolor="#39e58133"] ;
21 -> 23 ;
24 [label="to_urban <= 0.5\nentropy = 1.5791\nsamples = 112\nvalue = [34, 42, 36]\nclass = LOW", fillcolor="#39e58114"] ;
20 -> 24 ;
25 [label="day_period <= 3.5\nentropy = 1.5651\nsamples = 37\nvalue = [12, 10, 15]\nclass = MEDIUM", fillcolor="#8139e51f"] ;
24 -> 25 ;
26 [label="entropy = 1.5559\nsamples = 29\nvalue = [11, 7, 11]\nclass = HIGH", fillcolor="#e5813900"] ;
25 -> 26 ;
27 [label="entropy = 1.4056\nsamples = 8\nvalue = [1, 3, 4]\nclass = MEDIUM", fillcolor="#8139e533"] ;
25 -> 27 ;
28 [label="day_period <= 3.5\nentropy = 1.5575\nsamples = 75\nvalue = [22, 32, 21]\nclass = LOW", fillcolor="#39e58130"] ;
24 -> 28 ;
29 [label="entropy = 1.5303\nsamples = 56\nvalue = [16, 26, 14]\nclass = LOW", fillcolor="#39e58140"] ;
28 -> 29 ;
30 [label="entropy = 1.581\nsamples = 19\nvalue = [6, 6, 7]\nclass = MEDIUM", fillcolor="#8139e514"] ;
28 -> 30 ;
}