digraph Tree {
node [shape=box, style="filled", color="black"] ;
0 [label="day_period <= 1.5\nentropy = 1.5833\nsamples = 373\nvalue = [129, 116, 128]\nclass = HIGH", fillcolor="#e5813901"] ;
1 [label="day_period <= 0.5\nentropy = 1.499\nsamples = 155\nvalue = [67, 28, 60]\nclass = HIGH", fillcolor="#e5813913"] ;
0 -> 1 [labeldistance=2.5, labelangle=45, headlabel="True"] ;
2 [label="entropy = 1.371\nsamples = 5\nvalue = [1, 3, 1]\nclass = LOW", fillcolor="#39e5817f"] ;
1 -> 2 ;
3 [label="to_urban <= 0.5\nentropy = 1.4815\nsamples = 150\nvalue = [66, 25, 59]\nclass = HIGH", fillcolor="#e5813914"] ;
1 -> 3 ;
4 [label="from_urban <= 0.5\nentropy = 1.4362\nsamples = 52\nvalue = [28, 9, 15]\nclass = HIGH", fillcolor="#e581395a"] ;
3 -> 4 ;
5 [label="entropy = 1.3576\nsamples = 43\nvalue = [24, 5, 14]\nclass = HIGH", fillcolor="#e5813958"] ;
4 -> 5 ;
6 [label="entropy = 1.3921\nsamples = 9\nvalue = [4, 4, 1]\nclass = HIGH", fillcolor="#e5813900"] ;
4 -> 6 ;
7 [label="from_urban <= 0.5\nentropy = 1.4756\nsamples = 98\nvalue = [38, 16, 44]\nclass = MEDIUM", fillcolor="#8139e51a"] ;
3 -> 7 ;
8 [label="entropy = 1.4939\nsamples = 56\nvalue = [21, 10, 25]\nclass = MEDIUM", fillcolor="#8139e51d"] ;
7 -> 8 ;
9 [label="entropy = 1.4469\nsamples = 42\nvalue = [17, 6, 19]\nclass = MEDIUM", fillcolor="#8139e514"] ;
7 -> 9 ;
10 [label="day_period <= 2.5\nentropy = 1.5685\nsamples = 218\nvalue = [62, 88, 68]\nclass = LOW", fillcolor="#39e58122"] ;
0 -> 10 [labeldistance=2.5, labelangle=-45, headlabel="False"] ;
11 [label="to_urban <= 0.5\nentropy = 0.469\nsamples = 20\nvalue = [0, 18, 2]\nclass = LOW", fillcolor="#39e581e3"] ;
10 -> 11 ;
12 [label="entropy = 0.0\nsamples = 11\nvalue = [0, 11, 0]\nclass = LOW", fillcolor="#39e581ff"] ;
11 -> 12 ;
13 [label="entropy = 0.7642\nsamples = 9\nvalue = [0, 7, 2]\nclass = LOW", fillcolor="#39e581b6"] ;
11 -> 13 ;
14 [label="day_period <= 3.5\nentropy = 1.5832\nsamples = 198\nvalue = [62, 70, 66]\nclass = LOW", fillcolor="#39e58108"] ;
10 -> 14 ;
15 [label="from_urban <= 0.5\nentropy = 1.3748\nsamples = 28\nvalue = [3, 14, 11]\nclass = LOW", fillcolor="#39e5812d"] ;
14 -> 15 ;
16 [label="entropy = 0.5033\nsamples = 9\nvalue = [0, 8, 1]\nclass = LOW", fillcolor="#39e581df"] ;
15 -> 16 ;
17 [label="to_urban <= 0.5\nentropy = 1.433\nsamples = 19\nvalue = [3, 6, 10]\nclass = MEDIUM", fillcolor="#8139e54e"] ;
15 -> 17 ;
18 [label="entropy = 1.4591\nsamples = 6\nvalue = [3, 1, 2]\nclass = HIGH", fillcolor="#e5813940"] ;
17 -> 18 ;
19 [label="entropy = 0.9612\nsamples = 13\nvalue = [0, 5, 8]\nclass = MEDIUM", fillcolor="#8139e560"] ;
17 -> 19 ;
20 [label="day_period <= 6.5\nentropy = 1.5843\nsamples = 170\nvalue = [59, 56, 55]\nclass = HIGH", fillcolor="#e5813907"] ;
14 -> 20 ;
21 [label="from_urban <= 0.5\nentropy = 1.5838\nsamples = 165\nvalue = [57, 56, 52]\nclass = HIGH", fillcolor="#e5813902"] ;
20 -> 21 ;
22 [label="day_period <= 5.5\nentropy = 1.5489\nsamples = 57\nvalue = [17, 25, 15]\nclass = LOW", fillcolor="#39e58133"] ;
21 -> 22 ;
23 [label="to_urban <= 0.5\nentropy = 1.5461\nsamples = 53\nvalue = [17, 23, 13]\nclass = LOW", fillcolor="#39e5812b"] ;
22 -> 23 ;
24 [label="day_period <= 4.5\nentropy = 1.4937\nsamples = 42\nvalue = [14, 20, 8]\nclass = LOW", fillcolor="#39e58137"] ;
23 -> 24 ;
25 [label="entropy = 1.5218\nsamples = 38\nvalue = [13, 17, 8]\nclass = LOW", fillcolor="#39e58129"] ;
24 -> 25 ;
26 [label="entropy = 0.8113\nsamples = 4\nvalue = [1, 3, 0]\nclass = LOW", fillcolor="#39e581aa"] ;
24 -> 26 ;
27 [label="entropy = 1.5395\nsamples = 11\nvalue = [3, 3, 5]\nclass = MEDIUM", fillcolor="#8139e540"] ;
23 -> 27 ;
28 [label="entropy = 1.0\nsamples = 4\nvalue = [0, 2, 2]\nclass = LOW", fillcolor="#39e58100"] ;
22 -> 28 ;
29 [label="day_period <= 4.5\nentropy = 1.577\nsamples = 108\nvalue = [40, 31, 37]\nclass = HIGH", fillcolor="#e581390b"] ;
21 -> 29 ;
30 [label="to_urban <= 0.5\nentropy = 1.5662\nsamples = 84\nvalue = [34, 23, 27]\nclass = HIGH", fillcolor="#e581391f"] ;
29 -> 30 ;
31 [label="entropy = 1.5274\nsamples = 48\nvalue = [22, 11, 15]\nclass = HIGH", fillcolor="#e5813936"] ;
30 -> 31 ;
32 [label="entropy = 1.585\nsamples = 36\nvalue = [12, 12, 12]\nclass = HIGH", fillcolor="#e5813900"] ;
30 -> 32 ;
33 [label="day_period <= 5.5\nentropy = 1.5546\nsamples = 24\nvalue = [6, 8, 10]\nclass = MEDIUM", fillcolor="#8139e520"] ;
29 -> 33 ;
34 [label="to_urban <= 0.5\nentropy = 1.5715\nsamples = 18\nvalue = [5, 6, 7]\nclass = MEDIUM", fillcolor="#8139e515"] ;
33 -> 34 ;
35 [label="entropy = 1.4591\nsamples = 6\nvalue = [1, 2, 3]\nclass = MEDIUM", fillcolor="#8139e540"] ;
34 -> 35 ;
36 [label="entropy = 1.585\nsamples = 12\nvalue = [4, 4, 4]\nclass = HIGH", fillcolor="#e5813900"] ;
34 -> 36 ;
37 [label="entropy = 1.4591\nsamples = 6\nvalue = [1, 2, 3]\nclass = MEDIUM", fillcolor="#8139e540"] ;
33 -> 37 ;
38 [label="entropy = 0.971\nsamples = 5\nvalue = [2, 0, 3]\nclass = MEDIUM", fillcolor="#8139e555"] ;
20 -> 38 ;
}