digraph Tree {
node [shape=box, style="filled", color="black"] ;
0 [label="day_period <= 6.5\nentropy = 1.573\nsamples = 182\nvalue = [68, 64, 50]\nclass = HIGH", fillcolor="#e5813909"] ;
1 [label="day_period <= 1.5\nentropy = 1.5743\nsamples = 177\nvalue = [64, 64, 49]\nclass = HIGH", fillcolor="#e5813900"] ;
0 -> 1 [labeldistance=2.5, labelangle=45, headlabel="True"] ;
2 [label="entropy = 0.9852\nsamples = 7\nvalue = [3, 4, 0]\nclass = LOW", fillcolor="#39e58140"] ;
1 -> 2 ;
3 [label="to_urban <= 0.5\nentropy = 1.5782\nsamples = 170\nvalue = [61, 60, 49]\nclass = HIGH", fillcolor="#e5813902"] ;
1 -> 3 ;
4 [label="day_period <= 4.5\nentropy = 1.5424\nsamples = 58\nvalue = [17, 26, 15]\nclass = LOW", fillcolor="#39e58138"] ;
3 -> 4 ;
5 [label="from_urban <= 0.5\nentropy = 1.5752\nsamples = 36\nvalue = [11, 14, 11]\nclass = LOW", fillcolor="#39e5811f"] ;
4 -> 5 ;
6 [label="day_period <= 3.5\nentropy = 1.582\nsamples = 22\nvalue = [8, 7, 7]\nclass = HIGH", fillcolor="#e5813911"] ;
5 -> 6 ;
7 [label="entropy = 1.3788\nsamples = 7\nvalue = [2, 4, 1]\nclass = LOW", fillcolor="#39e58166"] ;
6 -> 7 ;
8 [label="entropy = 1.5219\nsamples = 15\nvalue = [6, 3, 6]\nclass = HIGH", fillcolor="#e5813900"] ;
6 -> 8 ;
9 [label="entropy = 1.4926\nsamples = 14\nvalue = [3, 7, 4]\nclass = LOW", fillcolor="#39e5814c"] ;
5 -> 9 ;
10 [label="from_urban <= 0.5\nentropy = 1.4354\nsamples = 22\nvalue = [6, 12, 4]\nclass = LOW", fillcolor="#39e58160"] ;
4 -> 10 ;
11 [label="entropy = 1.3093\nsamples = 11\nvalue = [2, 7, 2]\nclass = LOW", fillcolor="#39e5818e"] ;
10 -> 11 ;
12 [label="entropy = 1.4949\nsamples = 11\nvalue = [4, 5, 2]\nclass = LOW", fillcolor="#39e58124"] ;
10 -> 12 ;
13 [label="day_period <= 3.5\nentropy = 1.5738\nsamples = 112\nvalue = [44, 34, 34]\nclass = HIGH", fillcolor="#e5813921"] ;
3 -> 13 ;
14 [label="from_urban <= 0.5\nentropy = 1.5395\nsamples = 22\nvalue = [6, 10, 6]\nclass = LOW", fillcolor="#39e58140"] ;
13 -> 14 ;
15 [label="entropy = 1.5567\nsamples = 7\nvalue = [2, 3, 2]\nclass = LOW", fillcolor="#39e58133"] ;
14 -> 15 ;
16 [label="day_period <= 2.5\nentropy = 1.5301\nsamples = 15\nvalue = [4, 7, 4]\nclass = LOW", fillcolor="#39e58146"] ;
14 -> 16 ;
17 [label="entropy = 1.4855\nsamples = 10\nvalue = [2, 5, 3]\nclass = LOW", fillcolor="#39e58149"] ;
16 -> 17 ;
18 [label="entropy = 1.5219\nsamples = 5\nvalue = [2, 2, 1]\nclass = HIGH", fillcolor="#e5813900"] ;
16 -> 18 ;
19 [label="day_period <= 5.5\nentropy = 1.5578\nsamples = 90\nvalue = [38, 24, 28]\nclass = HIGH", fillcolor="#e5813929"] ;
13 -> 19 ;
20 [label="day_period <= 4.5\nentropy = 1.514\nsamples = 67\nvalue = [31, 14, 22]\nclass = HIGH", fillcolor="#e5813933"] ;
19 -> 20 ;
21 [label="from_urban <= 0.5\nentropy = 1.5012\nsamples = 27\nvalue = [10, 5, 12]\nclass = MEDIUM", fillcolor="#8139e51e"] ;
20 -> 21 ;
22 [label="entropy = 1.4855\nsamples = 10\nvalue = [5, 2, 3]\nclass = HIGH", fillcolor="#e5813949"] ;
21 -> 22 ;
23 [label="entropy = 1.4466\nsamples = 17\nvalue = [5, 3, 9]\nclass = MEDIUM", fillcolor="#8139e555"] ;
21 -> 23 ;
24 [label="from_urban <= 0.5\nentropy = 1.4722\nsamples = 40\nvalue = [21, 9, 10]\nclass = HIGH", fillcolor="#e581395e"] ;
20 -> 24 ;
25 [label="entropy = 1.4772\nsamples = 16\nvalue = [8, 3, 5]\nclass = HIGH", fillcolor="#e5813946"] ;
24 -> 25 ;
26 [label="entropy = 1.4506\nsamples = 24\nvalue = [13, 6, 5]\nclass = HIGH", fillcolor="#e5813963"] ;
24 -> 26 ;
27 [label="from_urban <= 0.5\nentropy = 1.5505\nsamples = 23\nvalue = [7, 10, 6]\nclass = LOW", fillcolor="#39e58130"] ;
19 -> 27 ;
28 [label="entropy = 1.4855\nsamples = 10\nvalue = [3, 5, 2]\nclass = LOW", fillcolor="#39e58149"] ;
27 -> 28 ;
29 [label="entropy = 1.5766\nsamples = 13\nvalue = [4, 5, 4]\nclass = LOW", fillcolor="#39e5811c"] ;
27 -> 29 ;
30 [label="entropy = 0.7219\nsamples = 5\nvalue = [4, 0, 1]\nclass = HIGH", fillcolor="#e58139bf"] ;
0 -> 30 [labeldistance=2.5, labelangle=-45, headlabel="False"] ;
}