digraph Tree {
node [shape=box, style="filled", color="black"] ;
0 [label="from_urban <= 0.5\nentropy = 1.5624\nsamples = 445\nvalue = [132, 186, 127]\nclass = LOW", fillcolor="#39e5812c"] ;
1 [label="day_period <= 4.5\nentropy = 1.4878\nsamples = 170\nvalue = [42, 87, 41]\nclass = LOW", fillcolor="#39e5815a"] ;
0 -> 1 [labeldistance=2.5, labelangle=45, headlabel="True"] ;
2 [label="day_period <= 2.5\nentropy = 1.4547\nsamples = 138\nvalue = [28, 74, 36]\nclass = LOW", fillcolor="#39e5815f"] ;
1 -> 2 ;
3 [label="to_urban <= 0.5\nentropy = 1.5198\nsamples = 87\nvalue = [20, 41, 26]\nclass = LOW", fillcolor="#39e5813f"] ;
2 -> 3 ;
4 [label="day_period <= 1.5\nentropy = 1.3624\nsamples = 45\nvalue = [6, 26, 13]\nclass = LOW", fillcolor="#39e58168"] ;
3 -> 4 ;
5 [label="entropy = 1.3442\nsamples = 39\nvalue = [5, 23, 11]\nclass = LOW", fillcolor="#39e5816d"] ;
4 -> 5 ;
6 [label="entropy = 1.4591\nsamples = 6\nvalue = [1, 3, 2]\nclass = LOW", fillcolor="#39e58140"] ;
4 -> 6 ;
7 [label="day_period <= 1.5\nentropy = 1.5825\nsamples = 42\nvalue = [14, 15, 13]\nclass = LOW", fillcolor="#39e58109"] ;
3 -> 7 ;
8 [label="entropy = 1.584\nsamples = 38\nvalue = [13, 13, 12]\nclass = HIGH", fillcolor="#e5813900"] ;
7 -> 8 ;
9 [label="entropy = 1.5\nsamples = 4\nvalue = [1, 2, 1]\nclass = LOW", fillcolor="#39e58155"] ;
7 -> 9 ;
10 [label="day_period <= 3.5\nentropy = 1.2865\nsamples = 51\nvalue = [8, 33, 10]\nclass = LOW", fillcolor="#39e5818f"] ;
2 -> 10 ;
11 [label="to_urban <= 0.5\nentropy = 0.65\nsamples = 12\nvalue = [0, 10, 2]\nclass = LOW", fillcolor="#39e581cc"] ;
10 -> 11 ;
12 [label="entropy = 0.65\nsamples = 6\nvalue = [0, 5, 1]\nclass = LOW", fillcolor="#39e581cc"] ;
11 -> 12 ;
13 [label="entropy = 0.65\nsamples = 6\nvalue = [0, 5, 1]\nclass = LOW", fillcolor="#39e581cc"] ;
11 -> 13 ;
14 [label="to_urban <= 0.5\nentropy = 1.3869\nsamples = 39\nvalue = [8, 23, 8]\nclass = LOW", fillcolor="#39e5817b"] ;
10 -> 14 ;
15 [label="entropy = 1.4386\nsamples = 29\nvalue = [6, 16, 7]\nclass = LOW", fillcolor="#39e58168"] ;
14 -> 15 ;
16 [label="entropy = 1.1568\nsamples = 10\nvalue = [2, 7, 1]\nclass = LOW", fillcolor="#39e5819f"] ;
14 -> 16 ;
17 [label="day_period <= 5.5\nentropy = 1.4682\nsamples = 32\nvalue = [14, 13, 5]\nclass = HIGH", fillcolor="#e581390d"] ;
1 -> 17 ;
18 [label="to_urban <= 0.5\nentropy = 1.1674\nsamples = 19\nvalue = [12, 6, 1]\nclass = HIGH", fillcolor="#e5813976"] ;
17 -> 18 ;
19 [label="entropy = 0.8631\nsamples = 7\nvalue = [5, 2, 0]\nclass = HIGH", fillcolor="#e5813999"] ;
18 -> 19 ;
20 [label="entropy = 1.2807\nsamples = 12\nvalue = [7, 4, 1]\nclass = HIGH", fillcolor="#e5813960"] ;
18 -> 20 ;
21 [label="to_urban <= 0.5\nentropy = 1.4196\nsamples = 13\nvalue = [2, 7, 4]\nclass = LOW", fillcolor="#39e58155"] ;
17 -> 21 ;
22 [label="entropy = 0.9183\nsamples = 9\nvalue = [0, 6, 3]\nclass = LOW", fillcolor="#39e5817f"] ;
21 -> 22 ;
23 [label="entropy = 1.5\nsamples = 4\nvalue = [2, 1, 1]\nclass = HIGH", fillcolor="#e5813955"] ;
21 -> 23 ;
24 [label="day_period <= 4.5\nentropy = 1.5824\nsamples = 275\nvalue = [90, 99, 86]\nclass = LOW", fillcolor="#39e5810c"] ;
0 -> 24 [labeldistance=2.5, labelangle=-45, headlabel="False"] ;
25 [label="day_period <= 1.5\nentropy = 1.5796\nsamples = 218\nvalue = [78, 64, 76]\nclass = HIGH", fillcolor="#e5813904"] ;
24 -> 25 ;
26 [label="to_urban <= 0.5\nentropy = 1.5065\nsamples = 70\nvalue = [29, 13, 28]\nclass = HIGH", fillcolor="#e5813906"] ;
25 -> 26 ;
27 [label="entropy = 1.5766\nsamples = 13\nvalue = [5, 4, 4]\nclass = HIGH", fillcolor="#e581391c"] ;
26 -> 27 ;
28 [label="entropy = 1.4714\nsamples = 57\nvalue = [24, 9, 24]\nclass = HIGH", fillcolor="#e5813900"] ;
26 -> 28 ;
29 [label="day_period <= 3.5\nentropy = 1.5845\nsamples = 148\nvalue = [49, 51, 48]\nclass = LOW", fillcolor="#39e58105"] ;
25 -> 29 ;
30 [label="day_period <= 2.5\nentropy = 1.5008\nsamples = 51\nvalue = [11, 25, 15]\nclass = LOW", fillcolor="#39e58147"] ;
29 -> 30 ;
31 [label="to_urban <= 0.5\nentropy = 1.5284\nsamples = 24\nvalue = [5, 10, 9]\nclass = LOW", fillcolor="#39e58111"] ;
30 -> 31 ;
32 [label="entropy = 1.0\nsamples = 4\nvalue = [0, 2, 2]\nclass = LOW", fillcolor="#39e58100"] ;
31 -> 32 ;
33 [label="entropy = 1.5589\nsamples = 20\nvalue = [5, 8, 7]\nclass = LOW", fillcolor="#39e58114"] ;
31 -> 33 ;
34 [label="to_urban <= 0.5\nentropy = 1.4355\nsamples = 27\nvalue = [6, 15, 6]\nclass = LOW", fillcolor="#39e5816d"] ;
30 -> 34 ;
35 [label="entropy = 1.5305\nsamples = 9\nvalue = [2, 4, 3]\nclass = LOW", fillcolor="#39e5812a"] ;
34 -> 35 ;
36 [label="entropy = 1.3472\nsamples = 18\nvalue = [4, 11, 3]\nclass = LOW", fillcolor="#39e58180"] ;
34 -> 36 ;
37 [label="to_urban <= 0.5\nentropy = 1.568\nsamples = 97\nvalue = [38, 26, 33]\nclass = HIGH", fillcolor="#e5813914"] ;
29 -> 37 ;
38 [label="entropy = 1.5306\nsamples = 42\nvalue = [18, 9, 15]\nclass = HIGH", fillcolor="#e581391c"] ;
37 -> 38 ;
39 [label="entropy = 1.5816\nsamples = 55\nvalue = [20, 17, 18]\nclass = HIGH", fillcolor="#e581390e"] ;
37 -> 39 ;
40 [label="to_urban <= 0.5\nentropy = 1.3458\nsamples = 57\nvalue = [12, 35, 10]\nclass = LOW", fillcolor="#39e58182"] ;
24 -> 40 ;
41 [label="day_period <= 5.5\nentropy = 0.9665\nsamples = 23\nvalue = [3, 18, 2]\nclass = LOW", fillcolor="#39e581bf"] ;
40 -> 41 ;
42 [label="entropy = 0.3534\nsamples = 15\nvalue = [1, 14, 0]\nclass = LOW", fillcolor="#39e581ed"] ;
41 -> 42 ;
43 [label="entropy = 1.5\nsamples = 8\nvalue = [2, 4, 2]\nclass = LOW", fillcolor="#39e58155"] ;
41 -> 43 ;
44 [label="day_period <= 5.5\nentropy = 1.4988\nsamples = 34\nvalue = [9, 17, 8]\nclass = LOW", fillcolor="#39e58152"] ;
40 -> 44 ;
45 [label="entropy = 1.5574\nsamples = 19\nvalue = [5, 8, 6]\nclass = LOW", fillcolor="#39e58127"] ;
44 -> 45 ;
46 [label="entropy = 1.3383\nsamples = 15\nvalue = [4, 9, 2]\nclass = LOW", fillcolor="#39e58174"] ;
44 -> 46 ;
}