digraph Tree {
node [shape=box, style="filled", color="black"] ;
0 [label="day_period <= 3.5\nentropy = 1.5488\nsamples = 340\nvalue = [94, 150, 96]\nclass = LOW", fillcolor="#39e58138"] ;
1 [label="to_urban <= 0.5\nentropy = 1.5836\nsamples = 119\nvalue = [39, 38, 42]\nclass = MEDIUM", fillcolor="#8139e50a"] ;
0 -> 1 [labeldistance=2.5, labelangle=45, headlabel="True"] ;
2 [label="day_period <= 2.5\nentropy = 1.4509\nsamples = 23\nvalue = [4, 12, 7]\nclass = LOW", fillcolor="#39e58150"] ;
1 -> 2 ;
3 [label="entropy = 1.5305\nsamples = 9\nvalue = [2, 4, 3]\nclass = LOW", fillcolor="#39e5812a"] ;
2 -> 3 ;
4 [label="entropy = 1.3788\nsamples = 14\nvalue = [2, 8, 4]\nclass = LOW", fillcolor="#39e58166"] ;
2 -> 4 ;
5 [label="from_urban <= 0.5\nentropy = 1.5718\nsamples = 96\nvalue = [35, 26, 35]\nclass = HIGH", fillcolor="#e5813900"] ;
1 -> 5 ;
6 [label="day_period <= 2.5\nentropy = 1.5642\nsamples = 41\nvalue = [17, 12, 12]\nclass = HIGH", fillcolor="#e581392c"] ;
5 -> 6 ;
7 [label="entropy = 1.5746\nsamples = 31\nvalue = [12, 9, 10]\nclass = HIGH", fillcolor="#e5813918"] ;
6 -> 7 ;
8 [label="entropy = 1.4855\nsamples = 10\nvalue = [5, 3, 2]\nclass = HIGH", fillcolor="#e5813949"] ;
6 -> 8 ;
9 [label="day_period <= 2.5\nentropy = 1.5558\nsamples = 55\nvalue = [18, 14, 23]\nclass = MEDIUM", fillcolor="#8139e522"] ;
5 -> 9 ;
10 [label="entropy = 1.2729\nsamples = 15\nvalue = [6, 1, 8]\nclass = MEDIUM", fillcolor="#8139e539"] ;
9 -> 10 ;
11 [label="entropy = 1.5787\nsamples = 40\nvalue = [12, 13, 15]\nclass = MEDIUM", fillcolor="#8139e513"] ;
9 -> 11 ;
12 [label="from_urban <= 0.5\nentropy = 1.493\nsamples = 221\nvalue = [55, 112, 54]\nclass = LOW", fillcolor="#39e58158"] ;
0 -> 12 [labeldistance=2.5, labelangle=-45, headlabel="False"] ;
13 [label="day_period <= 5.5\nentropy = 1.2214\nsamples = 71\nvalue = [14, 48, 9]\nclass = LOW", fillcolor="#39e58198"] ;
12 -> 13 ;
14 [label="to_urban <= 0.5\nentropy = 0.3912\nsamples = 13\nvalue = [0, 12, 1]\nclass = LOW", fillcolor="#39e581ea"] ;
13 -> 14 ;
15 [label="entropy = 0.0\nsamples = 6\nvalue = [0, 6, 0]\nclass = LOW", fillcolor="#39e581ff"] ;
14 -> 15 ;
16 [label="entropy = 0.5917\nsamples = 7\nvalue = [0, 6, 1]\nclass = LOW", fillcolor="#39e581d4"] ;
14 -> 16 ;
17 [label="day_period <= 6.5\nentropy = 1.3163\nsamples = 58\nvalue = [14, 36, 8]\nclass = LOW", fillcolor="#39e58180"] ;
13 -> 17 ;
18 [label="to_urban <= 0.5\nentropy = 1.3527\nsamples = 20\nvalue = [3, 12, 5]\nclass = LOW", fillcolor="#39e58177"] ;
17 -> 18 ;
19 [label="entropy = 1.4138\nsamples = 14\nvalue = [3, 8, 3]\nclass = LOW", fillcolor="#39e58174"] ;
18 -> 19 ;
20 [label="entropy = 0.9183\nsamples = 6\nvalue = [0, 4, 2]\nclass = LOW", fillcolor="#39e5817f"] ;
18 -> 20 ;
21 [label="day_period <= 7.5\nentropy = 1.2256\nsamples = 38\nvalue = [11, 24, 3]\nclass = LOW", fillcolor="#39e5817b"] ;
17 -> 21 ;
22 [label="to_urban <= 0.5\nentropy = 1.3085\nsamples = 24\nvalue = [9, 13, 2]\nclass = LOW", fillcolor="#39e58144"] ;
21 -> 22 ;
23 [label="entropy = 1.2327\nsamples = 18\nvalue = [7, 10, 1]\nclass = LOW", fillcolor="#39e58146"] ;
22 -> 23 ;
24 [label="entropy = 1.4591\nsamples = 6\nvalue = [2, 3, 1]\nclass = LOW", fillcolor="#39e58140"] ;
22 -> 24 ;
25 [label="to_urban <= 0.5\nentropy = 0.9464\nsamples = 14\nvalue = [2, 11, 1]\nclass = LOW", fillcolor="#39e581bf"] ;
21 -> 25 ;
26 [label="entropy = 1.3788\nsamples = 7\nvalue = [2, 4, 1]\nclass = LOW", fillcolor="#39e58166"] ;
25 -> 26 ;
27 [label="entropy = 0.0\nsamples = 7\nvalue = [0, 7, 0]\nclass = LOW", fillcolor="#39e581ff"] ;
25 -> 27 ;
28 [label="day_period <= 6.5\nentropy = 1.5569\nsamples = 150\nvalue = [41, 64, 45]\nclass = LOW", fillcolor="#39e5812e"] ;
12 -> 28 ;
29 [label="day_period <= 4.5\nentropy = 1.4499\nsamples = 75\nvalue = [14, 40, 21]\nclass = LOW", fillcolor="#39e5815a"] ;
28 -> 29 ;
30 [label="entropy = 1.1568\nsamples = 10\nvalue = [1, 7, 2]\nclass = LOW", fillcolor="#39e5819f"] ;
29 -> 30 ;
31 [label="to_urban <= 0.5\nentropy = 1.4796\nsamples = 65\nvalue = [13, 33, 19]\nclass = LOW", fillcolor="#39e5814e"] ;
29 -> 31 ;
32 [label="day_period <= 5.5\nentropy = 1.5126\nsamples = 26\nvalue = [5, 11, 10]\nclass = LOW", fillcolor="#39e58110"] ;
31 -> 32 ;
33 [label="entropy = 0.9544\nsamples = 8\nvalue = [0, 5, 3]\nclass = LOW", fillcolor="#39e58166"] ;
32 -> 33 ;
34 [label="entropy = 1.5715\nsamples = 18\nvalue = [5, 6, 7]\nclass = MEDIUM", fillcolor="#8139e515"] ;
32 -> 34 ;
35 [label="day_period <= 5.5\nentropy = 1.4229\nsamples = 39\nvalue = [8, 22, 9]\nclass = LOW", fillcolor="#39e5816f"] ;
31 -> 35 ;
36 [label="entropy = 1.5305\nsamples = 9\nvalue = [3, 4, 2]\nclass = LOW", fillcolor="#39e5812a"] ;
35 -> 36 ;
37 [label="entropy = 1.3629\nsamples = 30\nvalue = [5, 18, 7]\nclass = LOW", fillcolor="#39e5817a"] ;
35 -> 37 ;
38 [label="day_period <= 8.5\nentropy = 1.5827\nsamples = 75\nvalue = [27, 24, 24]\nclass = HIGH", fillcolor="#e581390f"] ;
28 -> 38 ;
39 [label="day_period <= 7.5\nentropy = 1.5624\nsamples = 63\nvalue = [26, 20, 17]\nclass = HIGH", fillcolor="#e5813924"] ;
38 -> 39 ;
40 [label="to_urban <= 0.5\nentropy = 1.5367\nsamples = 44\nvalue = [20, 11, 13]\nclass = HIGH", fillcolor="#e581393a"] ;
39 -> 40 ;
41 [label="entropy = 1.4772\nsamples = 16\nvalue = [8, 3, 5]\nclass = HIGH", fillcolor="#e5813946"] ;
40 -> 41 ;
42 [label="entropy = 1.5567\nsamples = 28\nvalue = [12, 8, 8]\nclass = HIGH", fillcolor="#e5813933"] ;
40 -> 42 ;
43 [label="to_urban <= 0.5\nentropy = 1.509\nsamples = 19\nvalue = [6, 9, 4]\nclass = LOW", fillcolor="#39e5813b"] ;
39 -> 43 ;
44 [label="entropy = 1.371\nsamples = 5\nvalue = [1, 3, 1]\nclass = LOW", fillcolor="#39e5817f"] ;
43 -> 44 ;
45 [label="entropy = 1.5306\nsamples = 14\nvalue = [5, 6, 3]\nclass = LOW", fillcolor="#39e5811c"] ;
43 -> 45 ;
46 [label="to_urban <= 0.5\nentropy = 1.2807\nsamples = 12\nvalue = [1, 4, 7]\nclass = MEDIUM", fillcolor="#8139e560"] ;
38 -> 46 ;
47 [label="entropy = 0.8113\nsamples = 4\nvalue = [0, 1, 3]\nclass = MEDIUM", fillcolor="#8139e5aa"] ;
46 -> 47 ;
48 [label="entropy = 1.4056\nsamples = 8\nvalue = [1, 3, 4]\nclass = MEDIUM", fillcolor="#8139e533"] ;
46 -> 48 ;
}