digraph Tree {
node [shape=box, style="filled", color="black"] ;
0 [label="day_period <= 1.5\nentropy = 1.5488\nsamples = 340\nvalue = [94, 150, 96]\nclass = LOW", fillcolor="#39e58138"] ;
1 [label="to_urban <= 0.5\nentropy = 1.5833\nsamples = 118\nvalue = [38, 38, 42]\nclass = MEDIUM", fillcolor="#8139e50d"] ;
0 -> 1 [labeldistance=2.5, labelangle=45, headlabel="True"] ;
2 [label="entropy = 1.4509\nsamples = 23\nvalue = [4, 12, 7]\nclass = LOW", fillcolor="#39e58150"] ;
1 -> 2 ;
3 [label="from_urban <= 0.5\nentropy = 1.5729\nsamples = 95\nvalue = [34, 26, 35]\nclass = MEDIUM", fillcolor="#8139e504"] ;
1 -> 3 ;
4 [label="entropy = 1.571\nsamples = 40\nvalue = [16, 12, 12]\nclass = HIGH", fillcolor="#e5813924"] ;
3 -> 4 ;
5 [label="entropy = 1.5558\nsamples = 55\nvalue = [18, 14, 23]\nclass = MEDIUM", fillcolor="#8139e522"] ;
3 -> 5 ;
6 [label="from_urban <= 0.5\nentropy = 1.4953\nsamples = 222\nvalue = [56, 112, 54]\nclass = LOW", fillcolor="#39e58156"] ;
0 -> 6 [labeldistance=2.5, labelangle=-45, headlabel="False"] ;
7 [label="day_period <= 3.5\nentropy = 1.2364\nsamples = 72\nvalue = [15, 48, 9]\nclass = LOW", fillcolor="#39e58194"] ;
6 -> 7 ;
8 [label="to_urban <= 0.5\nentropy = 0.3912\nsamples = 13\nvalue = [0, 12, 1]\nclass = LOW", fillcolor="#39e581ea"] ;
7 -> 8 ;
9 [label="entropy = 0.0\nsamples = 6\nvalue = [0, 6, 0]\nclass = LOW", fillcolor="#39e581ff"] ;
8 -> 9 ;
10 [label="entropy = 0.5917\nsamples = 7\nvalue = [0, 6, 1]\nclass = LOW", fillcolor="#39e581d4"] ;
8 -> 10 ;
11 [label="to_urban <= 0.5\nentropy = 1.3281\nsamples = 59\nvalue = [15, 36, 8]\nclass = LOW", fillcolor="#39e5817a"] ;
7 -> 11 ;
12 [label="day_period <= 4.5\nentropy = 1.3691\nsamples = 39\nvalue = [12, 22, 5]\nclass = LOW", fillcolor="#39e5815e"] ;
11 -> 12 ;
13 [label="entropy = 1.3663\nsamples = 32\nvalue = [10, 18, 4]\nclass = LOW", fillcolor="#39e5815d"] ;
12 -> 13 ;
14 [label="entropy = 1.3788\nsamples = 7\nvalue = [2, 4, 1]\nclass = LOW", fillcolor="#39e58166"] ;
12 -> 14 ;
15 [label="day_period <= 4.5\nentropy = 1.1813\nsamples = 20\nvalue = [3, 14, 3]\nclass = LOW", fillcolor="#39e581a5"] ;
11 -> 15 ;
16 [label="entropy = 1.3844\nsamples = 12\nvalue = [2, 7, 3]\nclass = LOW", fillcolor="#39e58171"] ;
15 -> 16 ;
17 [label="day_period <= 5.5\nentropy = 0.5436\nsamples = 8\nvalue = [1, 7, 0]\nclass = LOW", fillcolor="#39e581db"] ;
15 -> 17 ;
18 [label="entropy = 0.0\nsamples = 4\nvalue = [0, 4, 0]\nclass = LOW", fillcolor="#39e581ff"] ;
17 -> 18 ;
19 [label="entropy = 0.8113\nsamples = 4\nvalue = [1, 3, 0]\nclass = LOW", fillcolor="#39e581aa"] ;
17 -> 19 ;
20 [label="day_period <= 5.5\nentropy = 1.5569\nsamples = 150\nvalue = [41, 64, 45]\nclass = LOW", fillcolor="#39e5812e"] ;
6 -> 20 ;
21 [label="day_period <= 3.5\nentropy = 1.5526\nsamples = 138\nvalue = [40, 60, 38]\nclass = LOW", fillcolor="#39e58134"] ;
20 -> 21 ;
22 [label="to_urban <= 0.5\nentropy = 1.3604\nsamples = 27\nvalue = [4, 16, 7]\nclass = LOW", fillcolor="#39e58173"] ;
21 -> 22 ;
23 [label="entropy = 0.8813\nsamples = 10\nvalue = [0, 7, 3]\nclass = LOW", fillcolor="#39e58192"] ;
22 -> 23 ;
24 [label="day_period <= 2.5\nentropy = 1.4681\nsamples = 17\nvalue = [4, 9, 4]\nclass = LOW", fillcolor="#39e58162"] ;
22 -> 24 ;
25 [label="entropy = 1.2988\nsamples = 8\nvalue = [1, 5, 2]\nclass = LOW", fillcolor="#39e58180"] ;
24 -> 25 ;
26 [label="entropy = 1.5305\nsamples = 9\nvalue = [3, 4, 2]\nclass = LOW", fillcolor="#39e5812a"] ;
24 -> 26 ;
27 [label="to_urban <= 0.5\nentropy = 1.57\nsamples = 111\nvalue = [36, 44, 31]\nclass = LOW", fillcolor="#39e5811b"] ;
21 -> 27 ;
28 [label="day_period <= 4.5\nentropy = 1.5821\nsamples = 39\nvalue = [14, 12, 13]\nclass = HIGH", fillcolor="#e581390a"] ;
27 -> 28 ;
29 [label="entropy = 1.5682\nsamples = 34\nvalue = [13, 9, 12]\nclass = HIGH", fillcolor="#e581390c"] ;
28 -> 29 ;
30 [label="entropy = 1.371\nsamples = 5\nvalue = [1, 3, 1]\nclass = LOW", fillcolor="#39e5817f"] ;
28 -> 30 ;
31 [label="day_period <= 4.5\nentropy = 1.5426\nsamples = 72\nvalue = [22, 32, 18]\nclass = LOW", fillcolor="#39e58133"] ;
27 -> 31 ;
32 [label="entropy = 1.5424\nsamples = 58\nvalue = [17, 26, 15]\nclass = LOW", fillcolor="#39e58138"] ;
31 -> 32 ;
33 [label="entropy = 1.5306\nsamples = 14\nvalue = [5, 6, 3]\nclass = LOW", fillcolor="#39e5811c"] ;
31 -> 33 ;
34 [label="to_urban <= 0.5\nentropy = 1.2807\nsamples = 12\nvalue = [1, 4, 7]\nclass = MEDIUM", fillcolor="#8139e560"] ;
20 -> 34 ;
35 [label="entropy = 0.8113\nsamples = 4\nvalue = [0, 1, 3]\nclass = MEDIUM", fillcolor="#8139e5aa"] ;
34 -> 35 ;
36 [label="entropy = 1.4056\nsamples = 8\nvalue = [1, 3, 4]\nclass = MEDIUM", fillcolor="#8139e533"] ;
34 -> 36 ;
}