digraph Tree {
node [shape=box, style="filled", color="black"] ;
0 [label="day_period <= 3.5\nentropy = 1.4801\nsamples = 271\nvalue = [60, 140, 71]\nclass = LOW", fillcolor="#39e58158"] ;
1 [label="day_period <= 1.0\nentropy = 1.5789\nsamples = 94\nvalue = [35, 31, 28]\nclass = HIGH", fillcolor="#e5813910"] ;
0 -> 1 [labeldistance=2.5, labelangle=45, headlabel="True"] ;
2 [label="entropy = 0.5917\nsamples = 7\nvalue = [6, 1, 0]\nclass = HIGH", fillcolor="#e58139d4"] ;
1 -> 2 ;
3 [label="to_urban <= 0.5\nentropy = 1.5844\nsamples = 87\nvalue = [29, 30, 28]\nclass = LOW", fillcolor="#39e58104"] ;
1 -> 3 ;
4 [label="day_period <= 2.5\nentropy = 1.5189\nsamples = 29\nvalue = [13, 10, 6]\nclass = HIGH", fillcolor="#e5813928"] ;
3 -> 4 ;
5 [label="entropy = 1.5546\nsamples = 12\nvalue = [5, 4, 3]\nclass = HIGH", fillcolor="#e5813920"] ;
4 -> 5 ;
6 [label="entropy = 1.4837\nsamples = 17\nvalue = [8, 6, 3]\nclass = HIGH", fillcolor="#e581392e"] ;
4 -> 6 ;
7 [label="from_urban <= 0.5\nentropy = 1.5727\nsamples = 58\nvalue = [16, 20, 22]\nclass = MEDIUM", fillcolor="#8139e50d"] ;
3 -> 7 ;
8 [label="day_period <= 2.5\nentropy = 1.4949\nsamples = 33\nvalue = [6, 12, 15]\nclass = MEDIUM", fillcolor="#8139e524"] ;
7 -> 8 ;
9 [label="entropy = 1.571\nsamples = 20\nvalue = [6, 6, 8]\nclass = MEDIUM", fillcolor="#8139e524"] ;
8 -> 9 ;
10 [label="entropy = 0.9957\nsamples = 13\nvalue = [0, 6, 7]\nclass = MEDIUM", fillcolor="#8139e524"] ;
8 -> 10 ;
11 [label="day_period <= 2.5\nentropy = 1.569\nsamples = 25\nvalue = [10, 8, 7]\nclass = HIGH", fillcolor="#e581391e"] ;
7 -> 11 ;
12 [label="entropy = 1.1488\nsamples = 7\nvalue = [1, 5, 1]\nclass = LOW", fillcolor="#39e581aa"] ;
11 -> 12 ;
13 [label="entropy = 1.4591\nsamples = 18\nvalue = [9, 3, 6]\nclass = HIGH", fillcolor="#e5813940"] ;
11 -> 13 ;
14 [label="day_period <= 5.5\nentropy = 1.3255\nsamples = 177\nvalue = [25, 109, 43]\nclass = LOW", fillcolor="#39e5817e"] ;
0 -> 14 [labeldistance=2.5, labelangle=-45, headlabel="False"] ;
15 [label="from_urban <= 0.5\nentropy = 0.9286\nsamples = 66\nvalue = [4, 52, 10]\nclass = LOW", fillcolor="#39e581bf"] ;
14 -> 15 ;
16 [label="day_period <= 4.5\nentropy = 0.7452\nsamples = 34\nvalue = [3, 29, 2]\nclass = LOW", fillcolor="#39e581d6"] ;
15 -> 16 ;
17 [label="to_urban <= 0.5\nentropy = 0.4138\nsamples = 12\nvalue = [1, 11, 0]\nclass = LOW", fillcolor="#39e581e8"] ;
16 -> 17 ;
18 [label="entropy = 0.0\nsamples = 6\nvalue = [0, 6, 0]\nclass = LOW", fillcolor="#39e581ff"] ;
17 -> 18 ;
19 [label="entropy = 0.65\nsamples = 6\nvalue = [1, 5, 0]\nclass = LOW", fillcolor="#39e581cc"] ;
17 -> 19 ;
20 [label="to_urban <= 0.5\nentropy = 0.8659\nsamples = 22\nvalue = [2, 18, 2]\nclass = LOW", fillcolor="#39e581cc"] ;
16 -> 20 ;
21 [label="entropy = 0.9464\nsamples = 14\nvalue = [2, 11, 1]\nclass = LOW", fillcolor="#39e581bf"] ;
20 -> 21 ;
22 [label="entropy = 0.5436\nsamples = 8\nvalue = [0, 7, 1]\nclass = LOW", fillcolor="#39e581db"] ;
20 -> 22 ;
23 [label="day_period <= 4.5\nentropy = 0.9987\nsamples = 32\nvalue = [1, 23, 8]\nclass = LOW", fillcolor="#39e5819f"] ;
15 -> 23 ;
24 [label="entropy = 0.8113\nsamples = 12\nvalue = [0, 9, 3]\nclass = LOW", fillcolor="#39e581aa"] ;
23 -> 24 ;
25 [label="to_urban <= 0.5\nentropy = 1.0763\nsamples = 20\nvalue = [1, 14, 5]\nclass = LOW", fillcolor="#39e58199"] ;
23 -> 25 ;
26 [label="entropy = 0.65\nsamples = 6\nvalue = [0, 5, 1]\nclass = LOW", fillcolor="#39e581cc"] ;
25 -> 26 ;
27 [label="entropy = 1.1981\nsamples = 14\nvalue = [1, 9, 4]\nclass = LOW", fillcolor="#39e58180"] ;
25 -> 27 ;
28 [label="to_urban <= 0.5\nentropy = 1.4685\nsamples = 111\nvalue = [21, 57, 33]\nclass = LOW", fillcolor="#39e5814e"] ;
14 -> 28 ;
29 [label="from_urban <= 0.5\nentropy = 1.4819\nsamples = 48\nvalue = [8, 21, 19]\nclass = LOW", fillcolor="#39e58112"] ;
28 -> 29 ;
30 [label="day_period <= 7.0\nentropy = 0.8631\nsamples = 14\nvalue = [0, 10, 4]\nclass = LOW", fillcolor="#39e58199"] ;
29 -> 30 ;
31 [label="entropy = 1.0\nsamples = 4\nvalue = [0, 2, 2]\nclass = LOW", fillcolor="#39e58100"] ;
30 -> 31 ;
32 [label="day_period <= 8.5\nentropy = 0.7219\nsamples = 10\nvalue = [0, 8, 2]\nclass = LOW", fillcolor="#39e581bf"] ;
30 -> 32 ;
33 [label="entropy = 0.65\nsamples = 6\nvalue = [0, 5, 1]\nclass = LOW", fillcolor="#39e581cc"] ;
32 -> 33 ;
34 [label="entropy = 0.8113\nsamples = 4\nvalue = [0, 3, 1]\nclass = LOW", fillcolor="#39e581aa"] ;
32 -> 34 ;
35 [label="day_period <= 6.5\nentropy = 1.5387\nsamples = 34\nvalue = [8, 11, 15]\nclass = MEDIUM", fillcolor="#8139e52c"] ;
29 -> 35 ;
36 [label="entropy = 1.3486\nsamples = 11\nvalue = [1, 5, 5]\nclass = LOW", fillcolor="#39e58100"] ;
35 -> 36 ;
37 [label="day_period <= 7.5\nentropy = 1.5505\nsamples = 23\nvalue = [7, 6, 10]\nclass = MEDIUM", fillcolor="#8139e530"] ;
35 -> 37 ;
38 [label="entropy = 1.4573\nsamples = 13\nvalue = [3, 3, 7]\nclass = MEDIUM", fillcolor="#8139e566"] ;
37 -> 38 ;
39 [label="entropy = 1.571\nsamples = 10\nvalue = [4, 3, 3]\nclass = HIGH", fillcolor="#e5813924"] ;
37 -> 39 ;
40 [label="day_period <= 6.5\nentropy = 1.4134\nsamples = 63\nvalue = [13, 36, 14]\nclass = LOW", fillcolor="#39e58172"] ;
28 -> 40 ;
41 [label="from_urban <= 0.5\nentropy = 1.1897\nsamples = 19\nvalue = [4, 13, 2]\nclass = LOW", fillcolor="#39e58199"] ;
40 -> 41 ;
42 [label="entropy = 1.3788\nsamples = 7\nvalue = [2, 4, 1]\nclass = LOW", fillcolor="#39e58166"] ;
41 -> 42 ;
43 [label="entropy = 1.0409\nsamples = 12\nvalue = [2, 9, 1]\nclass = LOW", fillcolor="#39e581b2"] ;
41 -> 43 ;
44 [label="day_period <= 7.5\nentropy = 1.4687\nsamples = 44\nvalue = [9, 23, 12]\nclass = LOW", fillcolor="#39e58158"] ;
40 -> 44 ;
45 [label="entropy = 1.4883\nsamples = 28\nvalue = [5, 13, 10]\nclass = LOW", fillcolor="#39e5812b"] ;
44 -> 45 ;
46 [label="from_urban <= 0.5\nentropy = 1.2988\nsamples = 16\nvalue = [4, 10, 2]\nclass = LOW", fillcolor="#39e58180"] ;
44 -> 46 ;
47 [label="entropy = 1.5219\nsamples = 5\nvalue = [2, 2, 1]\nclass = HIGH", fillcolor="#e5813900"] ;
46 -> 47 ;
48 [label="entropy = 1.0958\nsamples = 11\nvalue = [2, 8, 1]\nclass = LOW", fillcolor="#39e581aa"] ;
46 -> 48 ;
}